digraph Tree {
node [shape=box, fontname="helvetica"] ;
edge [fontname="helvetica"] ;
0 [label="x[6] <= 0.5\ngini = 0.471\nsamples = 668\nvalue = [415, 253]"] ;
1 [label="x[5] <= 0.5\ngini = 0.383\nsamples = 229\nvalue = [59, 170]"] ;
0 -> 1 [labeldistance=2.5, labelangle=45, headlabel="True"] ;
2 [label="x[0] <= 2.5\ngini = 0.064\nsamples = 120\nvalue = [4, 116]"] ;
1 -> 2 ;
3 [label="x[3] <= 88.5\ngini = 0.5\nsamples = 2\nvalue = [1, 1]"] ;
2 -> 3 ;
4 [label="gini = 0.0\nsamples = 1\nvalue = [0, 1]"] ;
3 -> 4 ;
5 [label="gini = 0.0\nsamples = 1\nvalue = [1, 0]"] ;
3 -> 5 ;
6 [label="x[0] <= 24.5\ngini = 0.05\nsamples = 118\nvalue = [3, 115]"] ;
2 -> 6 ;
7 [label="gini = 0.0\nsamples = 38\nvalue = [0, 38]"] ;
6 -> 7 ;
8 [label="x[0] <= 26.0\ngini = 0.072\nsamples = 80\nvalue = [3, 77]"] ;
6 -> 8 ;
9 [label="gini = 0.0\nsamples = 1\nvalue = [1, 0]"] ;
8 -> 9 ;
10 [label="x[0] <= 27.5\ngini = 0.049\nsamples = 79\nvalue = [2, 77]"] ;
8 -> 10 ;
11 [label="x[3] <= 17.0\ngini = 0.444\nsamples = 3\nvalue = [1, 2]"] ;
10 -> 11 ;
12 [label="gini = 0.0\nsamples = 2\nvalue = [0, 2]"] ;
11 -> 12 ;
13 [label="gini = 0.0\nsamples = 1\nvalue = [1, 0]"] ;
11 -> 13 ;
14 [label="x[0] <= 49.5\ngini = 0.026\nsamples = 76\nvalue = [1, 75]"] ;
10 -> 14 ;
15 [label="gini = 0.0\nsamples = 61\nvalue = [0, 61]"] ;
14 -> 15 ;
16 [label="x[0] <= 50.5\ngini = 0.124\nsamples = 15\nvalue = [1, 14]"] ;
14 -> 16 ;
17 [label="x[3] <= 19.0\ngini = 0.444\nsamples = 3\nvalue = [1, 2]"] ;
16 -> 17 ;
18 [label="gini = 0.0\nsamples = 2\nvalue = [0, 2]"] ;
17 -> 18 ;
19 [label="gini = 0.0\nsamples = 1\nvalue = [1, 0]"] ;
17 -> 19 ;
20 [label="gini = 0.0\nsamples = 12\nvalue = [0, 12]"] ;
16 -> 20 ;
21 [label="x[3] <= 23.5\ngini = 0.5\nsamples = 109\nvalue = [55, 54]"] ;
1 -> 21 ;
22 [label="x[0] <= 36.5\ngini = 0.488\nsamples = 92\nvalue = [39, 53]"] ;
21 -> 22 ;
23 [label="x[8] <= 0.5\ngini = 0.479\nsamples = 88\nvalue = [35, 53]"] ;
22 -> 23 ;
24 [label="x[3] <= 14.5\ngini = 0.411\nsamples = 38\nvalue = [11, 27]"] ;
23 -> 24 ;
25 [label="x[3] <= 13.5\ngini = 0.466\nsamples = 27\nvalue = [10, 17]"] ;
24 -> 25 ;
26 [label="x[3] <= 6.5\ngini = 0.386\nsamples = 23\nvalue = [6, 17]"] ;
25 -> 26 ;
27 [label="gini = 0.0\nsamples = 1\nvalue = [1, 0]"] ;
26 -> 27 ;
28 [label="x[2] <= 1.5\ngini = 0.351\nsamples = 22\nvalue = [5, 17]"] ;
26 -> 28 ;
29 [label="x[7] <= 0.5\ngini = 0.308\nsamples = 21\nvalue = [4, 17]"] ;
28 -> 29 ;
30 [label="gini = 0.0\nsamples = 5\nvalue = [0, 5]"] ;
29 -> 30 ;
31 [label="x[0] <= 18.5\ngini = 0.375\nsamples = 16\nvalue = [4, 12]"] ;
29 -> 31 ;
32 [label="gini = 0.0\nsamples = 2\nvalue = [0, 2]"] ;
31 -> 32 ;
33 [label="x[0] <= 21.5\ngini = 0.408\nsamples = 14\nvalue = [4, 10]"] ;
31 -> 33 ;
34 [label="gini = 0.0\nsamples = 1\nvalue = [1, 0]"] ;
33 -> 34 ;
35 [label="x[3] <= 7.5\ngini = 0.355\nsamples = 13\nvalue = [3, 10]"] ;
33 -> 35 ;
36 [label="x[0] <= 25.0\ngini = 0.278\nsamples = 12\nvalue = [2, 10]"] ;
35 -> 36 ;
37 [label="gini = 0.0\nsamples = 1\nvalue = [0, 1]"] ;
36 -> 37 ;
38 [label="gini = 0.298\nsamples = 11\nvalue = [2, 9]"] ;
36 -> 38 ;
39 [label="gini = 0.0\nsamples = 1\nvalue = [1, 0]"] ;
35 -> 39 ;
40 [label="gini = 0.0\nsamples = 1\nvalue = [1, 0]"] ;
28 -> 40 ;
41 [label="gini = 0.0\nsamples = 4\nvalue = [4, 0]"] ;
25 -> 41 ;
42 [label="x[1] <= 0.5\ngini = 0.165\nsamples = 11\nvalue = [1, 10]"] ;
24 -> 42 ;
43 [label="x[0] <= 26.0\ngini = 0.375\nsamples = 4\nvalue = [1, 3]"] ;
42 -> 43 ;
44 [label="gini = 0.0\nsamples = 2\nvalue = [0, 2]"] ;
43 -> 44 ;
45 [label="x[0] <= 28.5\ngini = 0.5\nsamples = 2\nvalue = [1, 1]"] ;
43 -> 45 ;
46 [label="gini = 0.0\nsamples = 1\nvalue = [1, 0]"] ;
45 -> 46 ;
47 [label="gini = 0.0\nsamples = 1\nvalue = [0, 1]"] ;
45 -> 47 ;
48 [label="gini = 0.0\nsamples = 7\nvalue = [0, 7]"] ;
42 -> 48 ;
49 [label="x[0] <= 29.5\ngini = 0.499\nsamples = 50\nvalue = [24, 26]"] ;
23 -> 49 ;
50 [label="x[0] <= 27.5\ngini = 0.498\nsamples = 43\nvalue = [23.0, 20.0]"] ;
49 -> 50 ;
51 [label="x[2] <= 1.5\ngini = 0.498\nsamples = 34\nvalue = [16, 18]"] ;
50 -> 51 ;
52 [label="x[3] <= 15.5\ngini = 0.498\nsamples = 30\nvalue = [16, 14]"] ;
51 -> 52 ;
53 [label="x[3] <= 10.5\ngini = 0.497\nsamples = 26\nvalue = [12, 14]"] ;
52 -> 53 ;
54 [label="x[0] <= 25.5\ngini = 0.496\nsamples = 22\nvalue = [12, 10]"] ;
53 -> 54 ;
55 [label="x[0] <= 23.5\ngini = 0.465\nsamples = 19\nvalue = [12, 7]"] ;
54 -> 55 ;
56 [label="x[3] <= 7.5\ngini = 0.492\nsamples = 16\nvalue = [9, 7]"] ;
55 -> 56 ;
57 [label="x[0] <= 16.0\ngini = 0.469\nsamples = 8\nvalue = [3, 5]"] ;
56 -> 57 ;
58 [label="gini = 0.0\nsamples = 1\nvalue = [1, 0]"] ;
57 -> 58 ;
59 [label="x[0] <= 19.5\ngini = 0.408\nsamples = 7\nvalue = [2, 5]"] ;
57 -> 59 ;
60 [label="gini = 0.5\nsamples = 2\nvalue = [1, 1]"] ;
59 -> 60 ;
61 [label="x[0] <= 22.5\ngini = 0.32\nsamples = 5\nvalue = [1, 4]"] ;
59 -> 61 ;
62 [label="gini = 0.0\nsamples = 3\nvalue = [0, 3]"] ;
61 -> 62 ;
63 [label="gini = 0.5\nsamples = 2\nvalue = [1, 1]"] ;
61 -> 63 ;
64 [label="x[0] <= 19.0\ngini = 0.375\nsamples = 8\nvalue = [6, 2]"] ;
56 -> 64 ;
65 [label="x[3] <= 9.5\ngini = 0.444\nsamples = 3\nvalue = [1, 2]"] ;
64 -> 65 ;
66 [label="gini = 0.0\nsamples = 2\nvalue = [0, 2]"] ;
65 -> 66 ;
67 [label="gini = 0.0\nsamples = 1\nvalue = [1, 0]"] ;
65 -> 67 ;
68 [label="gini = 0.0\nsamples = 5\nvalue = [5, 0]"] ;
64 -> 68 ;
69 [label="gini = 0.0\nsamples = 3\nvalue = [3, 0]"] ;
55 -> 69 ;
70 [label="gini = 0.0\nsamples = 3\nvalue = [0, 3]"] ;
54 -> 70 ;
71 [label="gini = 0.0\nsamples = 4\nvalue = [0, 4]"] ;
53 -> 71 ;
72 [label="gini = 0.0\nsamples = 4\nvalue = [4, 0]"] ;
52 -> 72 ;
73 [label="gini = 0.0\nsamples = 4\nvalue = [0, 4]"] ;
51 -> 73 ;
74 [label="x[3] <= 15.0\ngini = 0.346\nsamples = 9\nvalue = [7, 2]"] ;
50 -> 74 ;
75 [label="gini = 0.0\nsamples = 5\nvalue = [5, 0]"] ;
74 -> 75 ;
76 [label="x[2] <= 1.0\ngini = 0.5\nsamples = 4\nvalue = [2, 2]"] ;
74 -> 76 ;
77 [label="gini = 0.0\nsamples = 2\nvalue = [0, 2]"] ;
76 -> 77 ;
78 [label="gini = 0.0\nsamples = 2\nvalue = [2, 0]"] ;
76 -> 78 ;
79 [label="x[3] <= 17.5\ngini = 0.245\nsamples = 7\nvalue = [1, 6]"] ;
49 -> 79 ;
80 [label="gini = 0.0\nsamples = 4\nvalue = [0, 4]"] ;
79 -> 80 ;
81 [label="x[2] <= 0.5\ngini = 0.444\nsamples = 3\nvalue = [1, 2]"] ;
79 -> 81 ;
82 [label="gini = 0.0\nsamples = 1\nvalue = [1, 0]"] ;
81 -> 82 ;
83 [label="gini = 0.0\nsamples = 2\nvalue = [0, 2]"] ;
81 -> 83 ;
84 [label="gini = 0.0\nsamples = 4\nvalue = [4, 0]"] ;
22 -> 84 ;
85 [label="x[0] <= 7.0\ngini = 0.111\nsamples = 17\nvalue = [16, 1]"] ;
21 -> 85 ;
86 [label="x[0] <= 3.5\ngini = 0.444\nsamples = 3\nvalue = [2, 1]"] ;
85 -> 86 ;
87 [label="gini = 0.0\nsamples = 2\nvalue = [2, 0]"] ;
86 -> 87 ;
88 [label="gini = 0.0\nsamples = 1\nvalue = [0, 1]"] ;
86 -> 88 ;
89 [label="gini = 0.0\nsamples = 14\nvalue = [14, 0]"] ;
85 -> 89 ;
90 [label="x[0] <= 6.5\ngini = 0.307\nsamples = 439\nvalue = [356, 83]"] ;
0 -> 90 [labeldistance=2.5, labelangle=-45, headlabel="False"] ;
91 [label="x[1] <= 3.0\ngini = 0.408\nsamples = 21\nvalue = [6, 15]"] ;
90 -> 91 ;
92 [label="gini = 0.0\nsamples = 14\nvalue = [0, 14]"] ;
91 -> 92 ;
93 [label="x[0] <= 2.5\ngini = 0.245\nsamples = 7\nvalue = [6, 1]"] ;
91 -> 93 ;
94 [label="gini = 0.0\nsamples = 4\nvalue = [4, 0]"] ;
93 -> 94 ;
95 [label="x[0] <= 3.5\ngini = 0.444\nsamples = 3\nvalue = [2, 1]"] ;
93 -> 95 ;
96 [label="gini = 0.0\nsamples = 1\nvalue = [0, 1]"] ;
95 -> 96 ;
97 [label="gini = 0.0\nsamples = 2\nvalue = [2, 0]"] ;
95 -> 97 ;
98 [label="x[3] <= 25.5\ngini = 0.272\nsamples = 418\nvalue = [350, 68]"] ;
90 -> 98 ;
99 [label="x[0] <= 13.5\ngini = 0.204\nsamples = 295\nvalue = [261, 34]"] ;
98 -> 99 ;
100 [label="x[3] <= 16.5\ngini = 0.444\nsamples = 3\nvalue = [1, 2]"] ;
99 -> 100 ;
101 [label="gini = 0.0\nsamples = 2\nvalue = [0, 2]"] ;
100 -> 101 ;
102 [label="gini = 0.0\nsamples = 1\nvalue = [1, 0]"] ;
100 -> 102 ;
103 [label="x[0] <= 32.5\ngini = 0.195\nsamples = 292\nvalue = [260, 32]"] ;
99 -> 103 ;
104 [label="x[0] <= 30.5\ngini = 0.218\nsamples = 217\nvalue = [190, 27]"] ;
103 -> 104 ;
105 [label="x[8] <= 0.5\ngini = 0.198\nsamples = 206\nvalue = [183, 23]"] ;
104 -> 105 ;
106 [label="x[0] <= 28.5\ngini = 0.291\nsamples = 51\nvalue = [42, 9]"] ;
105 -> 106 ;
107 [label="x[3] <= 10.0\ngini = 0.254\nsamples = 47\nvalue = [40, 7]"] ;
106 -> 107 ;
108 [label="x[0] <= 23.5\ngini = 0.161\nsamples = 34\nvalue = [31, 3]"] ;
107 -> 108 ;
109 [label="x[0] <= 21.5\ngini = 0.278\nsamples = 6\nvalue = [5, 1]"] ;
108 -> 109 ;
110 [label="gini = 0.0\nsamples = 4\nvalue = [4, 0]"] ;
109 -> 110 ;
111 [label="gini = 0.5\nsamples = 2\nvalue = [1, 1]"] ;
109 -> 111 ;
112 [label="x[3] <= 6.5\ngini = 0.133\nsamples = 28\nvalue = [26, 2]"] ;
108 -> 112 ;
113 [label="gini = 0.0\nsamples = 2\nvalue = [2, 0]"] ;
112 -> 113 ;
114 [label="x[0] <= 26.5\ngini = 0.142\nsamples = 26\nvalue = [24, 2]"] ;
112 -> 114 ;
115 [label="gini = 0.0\nsamples = 2\nvalue = [2, 0]"] ;
114 -> 115 ;
116 [label="x[1] <= 0.5\ngini = 0.153\nsamples = 24\nvalue = [22, 2]"] ;
114 -> 116 ;
117 [label="x[7] <= 0.5\ngini = 0.159\nsamples = 23\nvalue = [21, 2]"] ;
116 -> 117 ;
118 [label="gini = 0.142\nsamples = 13\nvalue = [12, 1]"] ;
117 -> 118 ;
119 [label="gini = 0.18\nsamples = 10\nvalue = [9, 1]"] ;
117 -> 119 ;
120 [label="gini = 0.0\nsamples = 1\nvalue = [1, 0]"] ;
116 -> 120 ;
121 [label="x[2] <= 0.5\ngini = 0.426\nsamples = 13\nvalue = [9, 4]"] ;
107 -> 121 ;
122 [label="x[3] <= 13.5\ngini = 0.375\nsamples = 12\nvalue = [9, 3]"] ;
121 -> 122 ;
123 [label="gini = 0.0\nsamples = 1\nvalue = [0, 1]"] ;
122 -> 123 ;
124 [label="x[3] <= 16.5\ngini = 0.298\nsamples = 11\nvalue = [9, 2]"] ;
122 -> 124 ;
125 [label="gini = 0.0\nsamples = 6\nvalue = [6, 0]"] ;
124 -> 125 ;
126 [label="x[3] <= 23.5\ngini = 0.48\nsamples = 5\nvalue = [3, 2]"] ;
124 -> 126 ;
127 [label="x[1] <= 1.0\ngini = 0.444\nsamples = 3\nvalue = [1, 2]"] ;
126 -> 127 ;
128 [label="gini = 0.0\nsamples = 1\nvalue = [0, 1]"] ;
127 -> 128 ;
129 [label="x[7] <= 0.5\ngini = 0.5\nsamples = 2\nvalue = [1, 1]"] ;
127 -> 129 ;
130 [label="gini = 0.0\nsamples = 1\nvalue = [1, 0]"] ;
129 -> 130 ;
131 [label="gini = 0.0\nsamples = 1\nvalue = [0, 1]"] ;
129 -> 131 ;
132 [label="gini = 0.0\nsamples = 2\nvalue = [2, 0]"] ;
126 -> 132 ;
133 [label="gini = 0.0\nsamples = 1\nvalue = [0, 1]"] ;
121 -> 133 ;
134 [label="x[0] <= 29.5\ngini = 0.5\nsamples = 4\nvalue = [2, 2]"] ;
106 -> 134 ;
135 [label="gini = 0.0\nsamples = 2\nvalue = [0, 2]"] ;
134 -> 135 ;
136 [label="gini = 0.0\nsamples = 2\nvalue = [2, 0]"] ;
134 -> 136 ;
137 [label="x[3] <= 8.5\ngini = 0.164\nsamples = 155\nvalue = [141, 14]"] ;
105 -> 137 ;
138 [label="x[0] <= 27.5\ngini = 0.208\nsamples = 102\nvalue = [90, 12]"] ;
137 -> 138 ;
139 [label="x[0] <= 26.5\ngini = 0.274\nsamples = 61\nvalue = [51, 10]"] ;
138 -> 139 ;
140 [label="x[1] <= 0.5\ngini = 0.212\nsamples = 58\nvalue = [51, 7]"] ;
139 -> 140 ;
141 [label="x[3] <= 3.5\ngini = 0.174\nsamples = 52\nvalue = [47, 5]"] ;
140 -> 141 ;
142 [label="x[0] <= 22.0\ngini = 0.5\nsamples = 2\nvalue = [1, 1]"] ;
141 -> 142 ;
143 [label="gini = 0.0\nsamples = 1\nvalue = [1, 0]"] ;
142 -> 143 ;
144 [label="gini = 0.0\nsamples = 1\nvalue = [0, 1]"] ;
142 -> 144 ;
145 [label="x[0] <= 16.5\ngini = 0.147\nsamples = 50\nvalue = [46, 4]"] ;
141 -> 145 ;
146 [label="x[3] <= 7.5\ngini = 0.444\nsamples = 3\nvalue = [2, 1]"] ;
145 -> 146 ;
147 [label="gini = 0.0\nsamples = 1\nvalue = [1, 0]"] ;
146 -> 147 ;
148 [label="gini = 0.5\nsamples = 2\nvalue = [1, 1]"] ;
146 -> 148 ;
149 [label="x[0] <= 24.5\ngini = 0.12\nsamples = 47\nvalue = [44.0, 3.0]"] ;
145 -> 149 ;
150 [label="x[0] <= 23.5\ngini = 0.145\nsamples = 38\nvalue = [35, 3]"] ;
149 -> 150 ;
151 [label="x[0] <= 21.5\ngini = 0.111\nsamples = 34\nvalue = [32, 2]"] ;
150 -> 151 ;
152 [label="x[0] <= 18.5\ngini = 0.147\nsamples = 25\nvalue = [23, 2]"] ;
151 -> 152 ;
153 [label="gini = 0.0\nsamples = 6\nvalue = [6, 0]"] ;
152 -> 153 ;
154 [label="x[3] <= 7.5\ngini = 0.188\nsamples = 19\nvalue = [17, 2]"] ;
152 -> 154 ;
155 [label="x[0] <= 20.5\ngini = 0.142\nsamples = 13\nvalue = [12, 1]"] ;
154 -> 155 ;
156 [label="gini = 0.0\nsamples = 7\nvalue = [7, 0]"] ;
155 -> 156 ;
157 [label="gini = 0.278\nsamples = 6\nvalue = [5, 1]"] ;
155 -> 157 ;
158 [label="x[0] <= 19.5\ngini = 0.278\nsamples = 6\nvalue = [5, 1]"] ;
154 -> 158 ;
159 [label="gini = 0.5\nsamples = 2\nvalue = [1, 1]"] ;
158 -> 159 ;
160 [label="gini = 0.0\nsamples = 4\nvalue = [4, 0]"] ;
158 -> 160 ;
161 [label="gini = 0.0\nsamples = 9\nvalue = [9, 0]"] ;
151 -> 161 ;
162 [label="x[3] <= 7.5\ngini = 0.375\nsamples = 4\nvalue = [3, 1]"] ;
150 -> 162 ;
163 [label="gini = 0.5\nsamples = 2\nvalue = [1, 1]"] ;
162 -> 163 ;
164 [label="gini = 0.0\nsamples = 2\nvalue = [2, 0]"] ;
162 -> 164 ;
165 [label="gini = 0.0\nsamples = 9\nvalue = [9, 0]"] ;
149 -> 165 ;
166 [label="x[0] <= 19.0\ngini = 0.444\nsamples = 6\nvalue = [4, 2]"] ;
140 -> 166 ;
167 [label="gini = 0.0\nsamples = 2\nvalue = [2, 0]"] ;
166 -> 167 ;
168 [label="x[1] <= 1.5\ngini = 0.5\nsamples = 4\nvalue = [2, 2]"] ;
166 -> 168 ;
169 [label="x[0] <= 21.0\ngini = 0.444\nsamples = 3\nvalue = [1, 2]"] ;
168 -> 169 ;
170 [label="gini = 0.0\nsamples = 1\nvalue = [0, 1]"] ;
169 -> 170 ;
171 [label="x[0] <= 23.5\ngini = 0.5\nsamples = 2\nvalue = [1, 1]"] ;
169 -> 171 ;
172 [label="gini = 0.0\nsamples = 1\nvalue = [1, 0]"] ;
171 -> 172 ;
173 [label="gini = 0.0\nsamples = 1\nvalue = [0, 1]"] ;
171 -> 173 ;
174 [label="gini = 0.0\nsamples = 1\nvalue = [1, 0]"] ;
168 -> 174 ;
175 [label="gini = 0.0\nsamples = 3\nvalue = [0, 3]"] ;
139 -> 175 ;
176 [label="x[3] <= 3.5\ngini = 0.093\nsamples = 41\nvalue = [39, 2]"] ;
138 -> 176 ;
177 [label="gini = 0.0\nsamples = 7\nvalue = [7, 0]"] ;
176 -> 177 ;
178 [label="x[0] <= 28.5\ngini = 0.111\nsamples = 34\nvalue = [32, 2]"] ;
176 -> 178 ;
179 [label="x[3] <= 7.5\ngini = 0.124\nsamples = 30\nvalue = [28, 2]"] ;
178 -> 179 ;
180 [label="x[1] <= 1.0\ngini = 0.105\nsamples = 18\nvalue = [17, 1]"] ;
179 -> 180 ;
181 [label="gini = 0.111\nsamples = 17\nvalue = [16, 1]"] ;
180 -> 181 ;
182 [label="gini = 0.0\nsamples = 1\nvalue = [1, 0]"] ;
180 -> 182 ;
183 [label="gini = 0.153\nsamples = 12\nvalue = [11, 1]"] ;
179 -> 183 ;
184 [label="gini = 0.0\nsamples = 4\nvalue = [4, 0]"] ;
178 -> 184 ;
185 [label="x[5] <= 0.5\ngini = 0.073\nsamples = 53\nvalue = [51, 2]"] ;
137 -> 185 ;
186 [label="x[0] <= 28.5\ngini = 0.147\nsamples = 25\nvalue = [23, 2]"] ;
185 -> 186 ;
187 [label="x[0] <= 27.5\ngini = 0.18\nsamples = 20\nvalue = [18, 2]"] ;
186 -> 187 ;
188 [label="x[3] <= 10.5\ngini = 0.111\nsamples = 17\nvalue = [16, 1]"] ;
187 -> 188 ;
189 [label="x[0] <= 21.5\ngini = 0.32\nsamples = 5\nvalue = [4, 1]"] ;
188 -> 189 ;
190 [label="x[0] <= 17.5\ngini = 0.444\nsamples = 3\nvalue = [2, 1]"] ;
189 -> 190 ;
191 [label="gini = 0.0\nsamples = 1\nvalue = [1, 0]"] ;
190 -> 191 ;
192 [label="gini = 0.5\nsamples = 2\nvalue = [1, 1]"] ;
190 -> 192 ;
193 [label="gini = 0.0\nsamples = 2\nvalue = [2, 0]"] ;
189 -> 193 ;
194 [label="gini = 0.0\nsamples = 12\nvalue = [12, 0]"] ;
188 -> 194 ;
195 [label="x[3] <= 11.5\ngini = 0.444\nsamples = 3\nvalue = [2, 1]"] ;
187 -> 195 ;
196 [label="gini = 0.0\nsamples = 1\nvalue = [1, 0]"] ;
195 -> 196 ;
197 [label="gini = 0.5\nsamples = 2\nvalue = [1, 1]"] ;
195 -> 197 ;
198 [label="gini = 0.0\nsamples = 5\nvalue = [5, 0]"] ;
186 -> 198 ;
199 [label="gini = 0.0\nsamples = 28\nvalue = [28, 0]"] ;
185 -> 199 ;
200 [label="x[7] <= 0.5\ngini = 0.463\nsamples = 11\nvalue = [7, 4]"] ;
104 -> 200 ;
201 [label="x[1] <= 0.5\ngini = 0.494\nsamples = 9\nvalue = [5, 4]"] ;
200 -> 201 ;
202 [label="x[0] <= 31.5\ngini = 0.5\nsamples = 8\nvalue = [4, 4]"] ;
201 -> 202 ;
203 [label="gini = 0.5\nsamples = 2\nvalue = [1, 1]"] ;
202 -> 203 ;
204 [label="x[3] <= 7.5\ngini = 0.5\nsamples = 6\nvalue = [3, 3]"] ;
202 -> 204 ;
205 [label="gini = 0.5\nsamples = 4\nvalue = [2, 2]"] ;
204 -> 205 ;
206 [label="gini = 0.5\nsamples = 2\nvalue = [1, 1]"] ;
204 -> 206 ;
207 [label="gini = 0.0\nsamples = 1\nvalue = [1, 0]"] ;
201 -> 207 ;
208 [label="gini = 0.0\nsamples = 2\nvalue = [2, 0]"] ;
200 -> 208 ;
209 [label="x[4] <= 0.5\ngini = 0.124\nsamples = 75\nvalue = [70, 5]"] ;
103 -> 209 ;
210 [label="x[0] <= 38.5\ngini = 0.07\nsamples = 55\nvalue = [53, 2]"] ;
209 -> 210 ;
211 [label="gini = 0.0\nsamples = 22\nvalue = [22, 0]"] ;
210 -> 211 ;
212 [label="x[0] <= 39.5\ngini = 0.114\nsamples = 33\nvalue = [31, 2]"] ;
210 -> 212 ;
213 [label="x[5] <= 0.5\ngini = 0.375\nsamples = 4\nvalue = [3, 1]"] ;
212 -> 213 ;
214 [label="gini = 0.0\nsamples = 1\nvalue = [1, 0]"] ;
213 -> 214 ;
215 [label="x[3] <= 15.5\ngini = 0.444\nsamples = 3\nvalue = [2, 1]"] ;
213 -> 215 ;
216 [label="gini = 0.5\nsamples = 2\nvalue = [1, 1]"] ;
215 -> 216 ;
217 [label="gini = 0.0\nsamples = 1\nvalue = [1, 0]"] ;
215 -> 217 ;
218 [label="x[0] <= 44.5\ngini = 0.067\nsamples = 29\nvalue = [28, 1]"] ;
212 -> 218 ;
219 [label="x[0] <= 43.5\ngini = 0.124\nsamples = 15\nvalue = [14, 1]"] ;
218 -> 219 ;
220 [label="gini = 0.0\nsamples = 12\nvalue = [12, 0]"] ;
219 -> 220 ;
221 [label="x[3] <= 7.5\ngini = 0.444\nsamples = 3\nvalue = [2, 1]"] ;
219 -> 221 ;
222 [label="gini = 0.0\nsamples = 1\nvalue = [0, 1]"] ;
221 -> 222 ;
223 [label="gini = 0.0\nsamples = 2\nvalue = [2, 0]"] ;
221 -> 223 ;
224 [label="gini = 0.0\nsamples = 14\nvalue = [14, 0]"] ;
218 -> 224 ;
225 [label="x[0] <= 60.5\ngini = 0.255\nsamples = 20\nvalue = [17, 3]"] ;
209 -> 225 ;
226 [label="x[0] <= 44.5\ngini = 0.198\nsamples = 18\nvalue = [16, 2]"] ;
225 -> 226 ;
227 [label="x[0] <= 40.5\ngini = 0.346\nsamples = 9\nvalue = [7, 2]"] ;
226 -> 227 ;
228 [label="x[0] <= 34.5\ngini = 0.245\nsamples = 7\nvalue = [6, 1]"] ;
227 -> 228 ;
229 [label="x[1] <= 0.5\ngini = 0.375\nsamples = 4\nvalue = [3, 1]"] ;
228 -> 229 ;
230 [label="gini = 0.5\nsamples = 2\nvalue = [1, 1]"] ;
229 -> 230 ;
231 [label="gini = 0.0\nsamples = 2\nvalue = [2, 0]"] ;
229 -> 231 ;
232 [label="gini = 0.0\nsamples = 3\nvalue = [3, 0]"] ;
228 -> 232 ;
233 [label="gini = 0.5\nsamples = 2\nvalue = [1, 1]"] ;
227 -> 233 ;
234 [label="gini = 0.0\nsamples = 9\nvalue = [9, 0]"] ;
226 -> 234 ;
235 [label="x[0] <= 66.0\ngini = 0.5\nsamples = 2\nvalue = [1, 1]"] ;
225 -> 235 ;
236 [label="gini = 0.0\nsamples = 1\nvalue = [0, 1]"] ;
235 -> 236 ;
237 [label="gini = 0.0\nsamples = 1\nvalue = [1, 0]"] ;
235 -> 237 ;
238 [label="x[4] <= 0.5\ngini = 0.4\nsamples = 123\nvalue = [89, 34]"] ;
98 -> 238 ;
239 [label="x[1] <= 2.5\ngini = 0.442\nsamples = 97\nvalue = [65, 32]"] ;
238 -> 239 ;
240 [label="x[0] <= 27.5\ngini = 0.472\nsamples = 84\nvalue = [52, 32]"] ;
239 -> 240 ;
241 [label="x[0] <= 23.5\ngini = 0.463\nsamples = 11\nvalue = [4, 7]"] ;
240 -> 241 ;
242 [label="x[0] <= 17.5\ngini = 0.32\nsamples = 5\nvalue = [4, 1]"] ;
241 -> 242 ;
243 [label="gini = 0.0\nsamples = 1\nvalue = [0, 1]"] ;
242 -> 243 ;
244 [label="gini = 0.0\nsamples = 4\nvalue = [4, 0]"] ;
242 -> 244 ;
245 [label="gini = 0.0\nsamples = 6\nvalue = [0, 6]"] ;
241 -> 245 ;
246 [label="x[3] <= 387.5\ngini = 0.45\nsamples = 73\nvalue = [48, 25]"] ;
240 -> 246 ;
247 [label="x[3] <= 30.5\ngini = 0.438\nsamples = 71\nvalue = [48, 23]"] ;
246 -> 247 ;
248 [label="x[0] <= 53.5\ngini = 0.497\nsamples = 26\nvalue = [14, 12]"] ;
247 -> 248 ;
249 [label="x[0] <= 39.5\ngini = 0.475\nsamples = 18\nvalue = [7, 11]"] ;
248 -> 249 ;
250 [label="x[3] <= 29.5\ngini = 0.497\nsamples = 13\nvalue = [7, 6]"] ;
249 -> 250 ;
251 [label="x[3] <= 26.5\ngini = 0.444\nsamples = 9\nvalue = [6, 3]"] ;
250 -> 251 ;
252 [label="x[0] <= 31.5\ngini = 0.5\nsamples = 4\nvalue = [2, 2]"] ;
251 -> 252 ;
253 [label="gini = 0.444\nsamples = 3\nvalue = [2, 1]"] ;
252 -> 253 ;
254 [label="gini = 0.0\nsamples = 1\nvalue = [0, 1]"] ;
252 -> 254 ;
255 [label="x[3] <= 28.0\ngini = 0.32\nsamples = 5\nvalue = [4, 1]"] ;
251 -> 255 ;
256 [label="gini = 0.0\nsamples = 3\nvalue = [3, 0]"] ;
255 -> 256 ;
257 [label="x[2] <= 0.5\ngini = 0.5\nsamples = 2\nvalue = [1, 1]"] ;
255 -> 257 ;
258 [label="gini = 0.0\nsamples = 1\nvalue = [0, 1]"] ;
257 -> 258 ;
259 [label="gini = 0.0\nsamples = 1\nvalue = [1, 0]"] ;
257 -> 259 ;
260 [label="x[0] <= 28.5\ngini = 0.375\nsamples = 4\nvalue = [1, 3]"] ;
250 -> 260 ;
261 [label="gini = 0.0\nsamples = 2\nvalue = [0, 2]"] ;
260 -> 261 ;
262 [label="x[0] <= 30.5\ngini = 0.5\nsamples = 2\nvalue = [1, 1]"] ;
260 -> 262 ;
263 [label="gini = 0.0\nsamples = 1\nvalue = [1, 0]"] ;
262 -> 263 ;
264 [label="gini = 0.0\nsamples = 1\nvalue = [0, 1]"] ;
262 -> 264 ;
265 [label="gini = 0.0\nsamples = 5\nvalue = [0, 5]"] ;
249 -> 265 ;
266 [label="x[0] <= 72.5\ngini = 0.219\nsamples = 8\nvalue = [7, 1]"] ;
248 -> 266 ;
267 [label="gini = 0.0\nsamples = 7\nvalue = [7, 0]"] ;
266 -> 267 ;
268 [label="gini = 0.0\nsamples = 1\nvalue = [0, 1]"] ;
266 -> 268 ;
269 [label="x[3] <= 55.5\ngini = 0.369\nsamples = 45\nvalue = [34, 11]"] ;
247 -> 269 ;
270 [label="x[0] <= 55.0\ngini = 0.188\nsamples = 19\nvalue = [17, 2]"] ;
269 -> 270 ;
271 [label="x[2] <= 0.5\ngini = 0.111\nsamples = 17\nvalue = [16, 1]"] ;
270 -> 271 ;
272 [label="gini = 0.0\nsamples = 15\nvalue = [15, 0]"] ;
271 -> 272 ;
273 [label="x[0] <= 38.0\ngini = 0.5\nsamples = 2\nvalue = [1, 1]"] ;
271 -> 273 ;
274 [label="gini = 0.0\nsamples = 1\nvalue = [0, 1]"] ;
273 -> 274 ;
275 [label="gini = 0.0\nsamples = 1\nvalue = [1, 0]"] ;
273 -> 275 ;
276 [label="x[8] <= 0.5\ngini = 0.5\nsamples = 2\nvalue = [1, 1]"] ;
270 -> 276 ;
277 [label="gini = 0.0\nsamples = 1\nvalue = [0, 1]"] ;
276 -> 277 ;
278 [label="gini = 0.0\nsamples = 1\nvalue = [1, 0]"] ;
276 -> 278 ;
279 [label="x[3] <= 59.0\ngini = 0.453\nsamples = 26\nvalue = [17, 9]"] ;
269 -> 279 ;
280 [label="x[0] <= 29.5\ngini = 0.444\nsamples = 6\nvalue = [2, 4]"] ;
279 -> 280 ;
281 [label="gini = 0.444\nsamples = 3\nvalue = [2, 1]"] ;
280 -> 281 ;
282 [label="gini = 0.0\nsamples = 3\nvalue = [0, 3]"] ;
280 -> 282 ;
283 [label="x[0] <= 47.0\ngini = 0.375\nsamples = 20\nvalue = [15, 5]"] ;
279 -> 283 ;
284 [label="x[3] <= 86.5\ngini = 0.18\nsamples = 10\nvalue = [9, 1]"] ;
283 -> 284 ;
285 [label="gini = 0.0\nsamples = 6\nvalue = [6, 0]"] ;
284 -> 285 ;
286 [label="x[8] <= 0.5\ngini = 0.375\nsamples = 4\nvalue = [3, 1]"] ;
284 -> 286 ;
287 [label="gini = 0.0\nsamples = 2\nvalue = [2, 0]"] ;
286 -> 287 ;
288 [label="x[3] <= 121.5\ngini = 0.5\nsamples = 2\nvalue = [1, 1]"] ;
286 -> 288 ;
289 [label="gini = 0.0\nsamples = 1\nvalue = [0, 1]"] ;
288 -> 289 ;
290 [label="gini = 0.0\nsamples = 1\nvalue = [1, 0]"] ;
288 -> 290 ;
291 [label="x[2] <= 0.5\ngini = 0.48\nsamples = 10\nvalue = [6, 4]"] ;
283 -> 291 ;
292 [label="x[3] <= 97.5\ngini = 0.375\nsamples = 4\nvalue = [1, 3]"] ;
291 -> 292 ;
293 [label="gini = 0.0\nsamples = 2\nvalue = [0, 2]"] ;
292 -> 293 ;
294 [label="x[8] <= 0.5\ngini = 0.5\nsamples = 2\nvalue = [1, 1]"] ;
292 -> 294 ;
295 [label="gini = 0.0\nsamples = 1\nvalue = [1, 0]"] ;
294 -> 295 ;
296 [label="gini = 0.0\nsamples = 1\nvalue = [0, 1]"] ;
294 -> 296 ;
297 [label="x[8] <= 0.5\ngini = 0.278\nsamples = 6\nvalue = [5, 1]"] ;
291 -> 297 ;
298 [label="x[0] <= 54.5\ngini = 0.5\nsamples = 2\nvalue = [1, 1]"] ;
297 -> 298 ;
299 [label="gini = 0.0\nsamples = 1\nvalue = [1, 0]"] ;
298 -> 299 ;
300 [label="gini = 0.0\nsamples = 1\nvalue = [0, 1]"] ;
298 -> 300 ;
301 [label="gini = 0.0\nsamples = 4\nvalue = [4, 0]"] ;
297 -> 301 ;
302 [label="gini = 0.0\nsamples = 2\nvalue = [0, 2]"] ;
246 -> 302 ;
303 [label="gini = 0.0\nsamples = 13\nvalue = [13, 0]"] ;
239 -> 303 ;
304 [label="x[0] <= 12.0\ngini = 0.142\nsamples = 26\nvalue = [24, 2]"] ;
238 -> 304 ;
305 [label="gini = 0.0\nsamples = 1\nvalue = [0, 1]"] ;
304 -> 305 ;
306 [label="x[0] <= 33.0\ngini = 0.077\nsamples = 25\nvalue = [24, 1]"] ;
304 -> 306 ;
307 [label="x[0] <= 31.5\ngini = 0.142\nsamples = 13\nvalue = [12, 1]"] ;
306 -> 307 ;
308 [label="gini = 0.0\nsamples = 10\nvalue = [10, 0]"] ;
307 -> 308 ;
309 [label="x[3] <= 28.0\ngini = 0.444\nsamples = 3\nvalue = [2, 1]"] ;
307 -> 309 ;
310 [label="gini = 0.0\nsamples = 1\nvalue = [0, 1]"] ;
309 -> 310 ;
311 [label="gini = 0.0\nsamples = 2\nvalue = [2, 0]"] ;
309 -> 311 ;
312 [label="gini = 0.0\nsamples = 12\nvalue = [12, 0]"] ;
306 -> 312 ;
}
